{"trainedAt":"2026-04-28T16:11:10.766Z","minutes":10,"architecture":{"input":6,"hidden":32,"output":1,"activation":"relu+tanh"},"training":{"games":16,"steps":1408,"avgLoss":1.000618108675175},"w1":[[-0.030753872570373954,-0.03508647880336012,-0.04745546872300404,-0.04385410322601873,-0.009085583630966362,0.04154755361560847,0.023493616897479204,0.003201364100680268,-0.025642666035354447,0.03602965700366209,-0.0004069221871771154,0.028690966500289714,-0.030782894524927714,-0.015943529299402445,0.011805450057544664,0.043418950345015875,-0.042479519751588125,0.005197751468271904,0.044672200215771445,-0.0279169260968093,0.014106921365557645,-0.005951106987195881,-0.02501695670050476,0.002210725822925466,-0.031022768612454246,0.02143360973636506,-0.024512153409708415,0.002154494966802292,-0.027415404067373497,-0.04531238001072308,0.05406156848905549,0.03694107929538132],[0.001747257809223868,-0.00879499880006465,-0.018092061129949117,0.041807968304746285,0.03913332142053778,0.03143357511330567,0.024874832604012524,0.012253565834793525,0.04346318100416846,0.004138213067321625,0.040597505593850086,0.019327894944350145,0.023980300477796902,-0.022789783129386797,-0.03693598944514408,0.030792047352682723,-0.02146978020805669,-0.02968624380633473,-0.00742101799963092,-0.040011326705631844,0.0009729564606936675,0.05475533940051691,0.028420280565662683,-0.022993107976250045,0.0286487559000046,-0.02488674646588986,-0.013548524271993049,-0.006609432444192459,0.05267787316368654,-0.001727741466565357,0.03824631369890632,-0.0041795873526247265],[-0.003303417712423772,0.03461428754739277,0.024316431443768334,0.01967622499604824,-0.0004702338686057013,-0.046896857209726014,-0.04273780936521856,-0.04265015477474142,0.017812426947712966,0.03615134559107472,0.024881356086866493,-0.03860986123932591,0.019676342692774566,-0.04328504171850962,-0.017079706815514326,-0.04584356409824316,-0.031572674102744655,-0.005971376819000623,0.03300636513143389,0.006173085544448842,-0.009027265287379035,0.034444435347057614,0.013677153347532273,0.027194770823597225,-0.046845243261317455,0.023965919812788065,-0.022448809901909065,-0.02721431172261198,0.011250739111718798,-0.02599904578857993,0.003846323483724307,-0.030847875728409017],[0.018940562436705142,0.039197590168641515,-0.04135878779875563,-0.03388696977190797,-0.029909873280358195,-0.012144965265732865,0.016657607243182593,0.03786701588136589,0.02578373725844927,0.02694378612546387,0.02952385140965624,-0.0165029475294046,0.026728766898014834,-0.005539913651565722,0.010376899648552946,0.014012501597405785,-0.018190768922936987,-0.013216213296089898,0.04878526494449656,0.032370508659137494,0.04842324268322002,-0.001992668489130095,0.040713292693298125,0.024429983004977812,-0.04120529465865476,0.01878463914655578,0.024110588323133404,0.01285313213712603,-0.03918379840731031,0.020732584029909063,0.03298879946000156,-0.0384517845124874],[-0.01019886217969794,-0.009268089574485253,0.0020983406060842928,0.0003554961795869101,0.0015818720164448889,-0.0057900174375752995,-0.036997399725861684,0.02730974517537611,-0.041271410635627476,0.010386090779065207,-0.03051262271197536,-0.046336847319681275,-0.023881280075890667,0.007044774768175073,0.01109146156939871,-0.04614407608819065,-0.01844863125430296,0.003652149407455471,-0.0015999851406431273,-0.021550227802388223,-0.015586628581600384,-0.004344917686861845,0.0074070804368796496,0.04664425943717745,-0.03725169868596703,0.022407176677712488,0.03733133945792251,0.03931154258915638,-0.01997668185199709,0.044736002707512365,0.038677361320972034,0.004810107344138207],[-0.0025281351938788743,0.012335076596504364,-0.02969969556357961,-0.020779498280461644,0.010636077995468266,0.005936143453572521,0.01464160412565826,0.04102045961217237,-0.04693385596883384,0.037097024343253404,-0.03743173113614207,0.03463082952726643,-0.03518581263159623,-0.0008445250641314177,0.02248018119664133,-0.043603116747343594,0.019376520925674802,0.0025517720532578485,-0.02277747828049336,0.04287690842787726,-0.026072178285262624,-0.021547537610701505,-0.0018855638780716107,0.022199400044503003,0.018691841227939276,0.04992302240262876,-0.01632972867297956,-0.0040528127312538555,0.020342178864174817,0.03374669416813402,0.004388908157158765,-0.039777332691071594]],"b1":[0.00036273105727468584,-0.00015310621158580798,0,0.008707606834870037,0.001974885067344268,0.0000929556154385933,0.00006299101333071901,0.00032302697423901923,-0.0009420021629845665,0.000010097418584498313,-0.0010072962772292293,0.0000023259878715293117,0.0025010087621368682,0,-0.004350560468128749,0.0025305827727089714,0,-0.001124492656787463,-0.000631816514850953,-0.00030454381113640745,0.00039282046556899904,0.002589654676207205,0.006722559069370838,-0.0013472564079823556,-0.0032698877905713145,0.000052436197935302586,-0.0006753044691154744,0.0003283977591344068,0.007714707928636698,-0.00196072913418339,-0.00010248255653117971,-0.0007288031311373235],"w2":[[0.026933892803323572],[-0.022079415427439922],[-0.038113681824318846],[0.030065817697605322],[0.04632986928651007],[0.012389904669902283],[-0.003401853264908283],[0.012145819332629629],[-0.005283813124572936],[-0.0186919417305098],[-0.009082879227651027],[0.007791367051540073],[0.03757953717195671],[0.022460717394717795],[0.018547469411848136],[-0.039685199876267084],[0.03121681661860397],[0.036923692452469146],[0.008178745460672704],[0.039951299373696646],[-0.0025628982848894606],[0.05447174828351402],[0.048338659523925576],[0.013929627967033287],[-0.041684867473326975],[-0.0018575465146616571],[-0.0384959971117801],[-0.0037728899983813188],[0.04130541263100908],[-0.03345783195431078],[-0.04780659626913616],[0.005861574659895331]],"b2":[0.0048774040216756406]}